digraph Tree {
node [shape=box, style="filled, rounded", color="black", fontname=helvetica] ;
edge [fontname=helvetica] ;
0 [label="oldpeak <= 1.7\ngini = 0.5\nsamples = 100.0%\nvalue = [0.47, 0.53]\nclass = no disease", fillcolor="#e6f3fc"] ;
1 [label="thal_fixed defect <= 0.5\n0.44\n74.5%\n[0.33, 0.67]\nno disease", fillcolor="#9acdf2"] ;
0 -> 1 [labeldistance=2.5, labelangle=45, headlabel="True"] ;
2 [label="oldpeak <= 0.45\n0.43\n27.5%\n[0.68, 0.32]\ndisease", fillcolor="#f1bc95"] ;
1 -> 2 ;
3 [label="thalach <= 128.0\n0.47\n9.8%\n[0.38, 0.62]\nno disease", fillcolor="#b0d8f5"] ;
2 -> 3 ;
4 [label="slope_up <= 0.5\n0.28\n2.0%\n[0.83, 0.17]\ndisease", fillcolor="#ea9a61"] ;
3 -> 4 ;
5 [label="0.0\n0.7%\n[0.0, 1.0]\nno disease", fillcolor="#399de5"] ;
4 -> 5 ;
6 [label="0.0\n1.3%\n[1.0, 0.0]\ndisease", fillcolor="#e58139"] ;
4 -> 6 ;
7 [label="cp_no pain <= 0.5\n0.35\n7.8%\n[0.22, 0.78]\nno disease", fillcolor="#72b9ec"] ;
3 -> 7 ;
8 [label="0.38\n7.2%\n[0.25, 0.75]\nno disease", fillcolor="#7bbeee"] ;
7 -> 8 ;
9 [label="0.0\n0.7%\n[0.0, 1.0]\nno disease", fillcolor="#399de5"] ;
7 -> 9 ;
10 [label="age <= 66.5\n0.24\n17.6%\n[0.86, 0.14]\ndisease", fillcolor="#e9965a"] ;
2 -> 10 ;
11 [label="chol <= 244.0\n0.15\n15.7%\n[0.92, 0.08]\ndisease", fillcolor="#e78c4a"] ;
10 -> 11 ;
12 [label="0.27\n7.8%\n[0.84, 0.16]\ndisease", fillcolor="#ea995e"] ;
11 -> 12 ;
13 [label="0.0\n7.8%\n[1.0, 0.0]\ndisease", fillcolor="#e58139"] ;
11 -> 13 ;
14 [label="exang_true <= 0.5\n0.38\n2.0%\n[0.25, 0.75]\nno disease", fillcolor="#7bbeee"] ;
10 -> 14 ;
15 [label="0.0\n1.3%\n[0.0, 1.0]\nno disease", fillcolor="#399de5"] ;
14 -> 15 ;
16 [label="0.0\n0.7%\n[1.0, 0.0]\ndisease", fillcolor="#e58139"] ;
14 -> 16 ;
17 [label="age <= 55.5\n0.22\n47.1%\n[0.12, 0.88]\nno disease", fillcolor="#55abe9"] ;
1 -> 17 ;
18 [label="chol <= 273.0\n0.11\n28.8%\n[0.06, 0.94]\nno disease", fillcolor="#46a3e7"] ;
17 -> 18 ;
19 [label="age <= 46.5\n0.04\n21.6%\n[0.02, 0.98]\nno disease", fillcolor="#3d9fe6"] ;
18 -> 19 ;
20 [label="0.0\n11.8%\n[0.0, 1.0]\nno disease", fillcolor="#399de5"] ;
19 -> 20 ;
21 [label="0.08\n9.8%\n[0.04, 0.96]\nno disease", fillcolor="#42a1e6"] ;
19 -> 21 ;
22 [label="ca <= 0.5\n0.32\n7.2%\n[0.2, 0.8]\nno disease", fillcolor="#6ab6ec"] ;
18 -> 22 ;
23 [label="0.0\n5.2%\n[0.0, 1.0]\nno disease", fillcolor="#399de5"] ;
22 -> 23 ;
24 [label="0.48\n2.0%\n[0.6, 0.4]\ndisease", fillcolor="#f6d5bd"] ;
22 -> 24 ;
25 [label="age <= 67.5\n0.33\n18.3%\n[0.21, 0.79]\nno disease", fillcolor="#6fb7ec"] ;
17 -> 25 ;
26 [label="trestbps <= 137.0\n0.38\n15.7%\n[0.25, 0.75]\nno disease", fillcolor="#7bbeee"] ;
25 -> 26 ;
27 [label="0.5\n7.8%\n[0.45, 0.55]\nno disease", fillcolor="#dbedfa"] ;
26 -> 27 ;
28 [label="0.09\n7.8%\n[0.05, 0.95]\nno disease", fillcolor="#43a2e6"] ;
26 -> 28 ;
29 [label="0.0\n2.6%\n[0.0, 1.0]\nno disease", fillcolor="#399de5"] ;
25 -> 29 ;
30 [label="thal_reversable defect <= 0.5\n0.24\n25.5%\n[0.86, 0.14]\ndisease", fillcolor="#e9965a"] ;
0 -> 30 [labeldistance=2.5, labelangle=-45, headlabel="False"] ;
31 [label="slope_up <= 0.5\n0.44\n10.5%\n[0.68, 0.32]\ndisease", fillcolor="#f1bc96"] ;
30 -> 31 ;
32 [label="exang_true <= 0.5\n0.44\n3.3%\n[0.33, 0.67]\nno disease", fillcolor="#9ccef2"] ;
31 -> 32 ;
33 [label="0.0\n2.0%\n[0.0, 1.0]\nno disease", fillcolor="#399de5"] ;
32 -> 33 ;
34 [label="0.0\n1.3%\n[1.0, 0.0]\ndisease", fillcolor="#e58139"] ;
32 -> 34 ;
35 [label="age <= 63.5\n0.22\n7.2%\n[0.88, 0.12]\ndisease", fillcolor="#e99355"] ;
31 -> 35 ;
36 [label="0.0\n5.9%\n[1.0, 0.0]\ndisease", fillcolor="#e58139"] ;
35 -> 36 ;
37 [label="thal_normal <= 0.5\n0.44\n1.3%\n[0.33, 0.67]\nno disease", fillcolor="#9ccef2"] ;
35 -> 37 ;
38 [label="0.0\n0.7%\n[0.0, 1.0]\nno disease", fillcolor="#399de5"] ;
37 -> 38 ;
39 [label="0.0\n0.7%\n[1.0, 0.0]\ndisease", fillcolor="#e58139"] ;
37 -> 39 ;
40 [label="oldpeak <= 1.9\n0.05\n15.0%\n[0.97, 0.03]\ndisease", fillcolor="#e6843e"] ;
30 -> 40 ;
41 [label="fbs_lower than 120 mg/dl <= 0.5\n0.44\n1.3%\n[0.67, 0.33]\ndisease", fillcolor="#f2c09c"] ;
40 -> 41 ;
42 [label="0.0\n0.7%\n[1.0, 0.0]\ndisease", fillcolor="#e58139"] ;
41 -> 42 ;
43 [label="0.0\n0.7%\n[0.0, 1.0]\nno disease", fillcolor="#399de5"] ;
41 -> 43 ;
44 [label="0.0\n13.7%\n[1.0, 0.0]\ndisease", fillcolor="#e58139"] ;
40 -> 44 ;
}